{"version": "0.5.1", "metadata": {"date": {"year": 2023, "month": 6, "day": 14, "hour": 9, "minute": 4, "second": 21}, "loudness": -12.071861267089844, "gain": 0.3737548409693169}, "architecture": "WaveNet", "config": {"layers": [{"input_size": 1, "condition_size": 1, "head_size": 2, "channels": 4, "kernel_size": 3, "dilations": [1, 2, 4, 8, 16, 32, 64], "activation": "Tanh", "gated": false, "head_bias": false}, {"input_size": 4, "condition_size": 1, "head_size": 1, "channels": 2, "kernel_size": 3, "dilations": [128, 256, 512, 1, 2, 4, 8, 16, 32, 64, 128, 256, 512], "activation": "Tanh", "gated": false, "head_bias": true}], "head": null, "head_scale": 0.02}, "weights": [0.32898586988449097, 0.6741010546684265, -1.2263027429580688, -0.8610316514968872, -0.29051271080970764, 0.6823118925094604, -0.13832595944404602, 0.06404701620340347, 0.6457862257957458, -0.07031899690628052, 0.08088047057390213, -0.748550295829773, -0.13929623365402222, -0.02928875759243965, -0.7943682670593262, 0.1640997678041458, 0.045376647263765335, 0.29800945520401, -0.09518007934093475, -0.2346845120191574, 0.14268076419830322, 0.2867063283920288, 0.04396131634712219, 0.16891202330589294, -0.10271812230348587, 0.1359245330095291, 0.21868975460529327, -0.32298144698143005, -0.6103770136833191, -0.496667742729187, 0.3141365945339203, -0.08512056618928909, -0.6107731461524963, 0.32429179549217224, 0.14573708176612854, 0.173354834318161, -0.6204996705055237, 0.5848403573036194, 0.5532012581825256, -0.3114922046661377, 0.15841250121593475, -0.4323735535144806, 0.22161293029785156, -0.07217647135257721, -0.47393184900283813, 0.10408508032560349, -0.009565156884491444, 0.45653197169303894, -0.37014633417129517, -0.2134716957807541, 0.45117664337158203, 0.034857530146837234, 0.19328559935092926, 0.0038270559161901474, 0.22243398427963257, -0.12779568135738373, 0.042856570333242416, -0.7324627041816711, -0.2581723928451538, -0.28006333112716675, 0.5635954141616821, 0.01647614687681198, -0.46258240938186646, 0.028616491705179214, 0.5552879571914673, -0.31768521666526794, -0.1367853432893753, -0.12397327274084091, 0.3735223412513733, 0.4136279821395874, -0.4923800528049469, -0.276258260011673, 0.20744289457798004, 0.30253031849861145, 0.37257057428359985, 0.31918424367904663, 0.007991906255483627, -0.2979670464992523, -0.02638307400047779, -0.2559744119644165, -0.31576666235923767, 0.888425886631012, 0.13736119866371155, -0.2981434762477875, 0.3936379849910736, -0.11495821923017502, -0.5042405724525452, -0.15504364669322968, -0.2914191782474518, -0.24049979448318481, -0.11951369047164917, 0.16570332646369934, -0.045899368822574615, 0.5096395611763, -0.477853924036026, -0.45125576853752136, 0.23081690073013306, -0.19446241855621338, 0.07682323455810547, 0.3528386056423187, 0.277216374874115, 0.38143929839134216, -0.10519731789827347, 0.10838019102811813, -0.5223120450973511, 0.500595211982727, -0.31947579979896545, -0.3615625500679016, 0.29732346534729004, 0.012470188550651073, -0.022569753229618073, 0.5225330591201782, 0.019313810393214226, 0.31886959075927734, 0.005196592304855585, -0.1824837327003479, -0.2685050666332245, 0.39156898856163025, -0.27708351612091064, 0.04681403562426567, 0.4373946487903595, -0.1329064667224884, -0.259227454662323, 0.3492377698421478, -0.08450886607170105, -0.1434619128704071, -0.21631976962089539, 0.06406176090240479, -0.06935123354196548, -0.11031942814588547, -0.04245360195636749, 0.03252136707305908, -0.5630146265029907, -0.19736440479755402, 0.38705816864967346, -0.3352951109409332, 0.04738019406795502, 0.050034355372190475, -0.19259093701839447, 0.4086635708808899, 0.870546817779541, 0.4492967128753662, 0.2700488567352295, 0.7809098958969116, -0.146621972322464, 0.14250890910625458, 0.6919615268707275, 0.01767163723707199, -0.69974684715271, -0.7001169919967651, -0.6844507455825806, -0.03480038046836853, -0.19878612458705902, 0.37891852855682373, 0.17020362615585327, -0.40873846411705017, 0.350719153881073, -0.5236925482749939, -0.22725464403629303, 0.17017073929309845, -0.15697798132896423, 0.08393969386816025, -0.9668139815330505, -0.20231924951076508, -0.10084065049886703, -0.020093457773327827, -0.13765014708042145, 0.011867069639265537, -0.205998033285141, -0.23384886980056763, 0.319205641746521, -0.10404633730649948, 0.1419428139925003, 0.10021983832120895, 0.41641172766685486, 0.31377851963043213, -0.012250403873622417, 0.00495621794834733, 0.2916600704193115, 0.05775636434555054, -0.24158231914043427, -0.3689500093460083, 0.1611408293247223, -0.0767626091837883, -0.000264591071754694, 0.20913726091384888, -0.0737401470541954, 0.13995271921157837, -0.3025643825531006, 0.29475176334381104, 0.10019934922456741, 0.059672463685274124, 0.07612491399049759, -0.44155049324035645, -0.1959284543991089, -0.05539615824818611, -0.4120979607105255, 0.1762828379869461, -0.024685358628630638, -0.23101752996444702, 0.3182222247123718, 0.08513803780078888, -0.16340868175029755, -0.14090785384178162, -0.1572844684123993, 0.017048031091690063, 0.14050114154815674, 0.1977163553237915, 0.5654255151748657, 0.09675058722496033, -0.34958383440971375, -0.3937530815601349, 0.4022252857685089, -0.43920859694480896, -0.28036370873451233, 0.08801131695508957, -0.7513304948806763, 0.3707975149154663, 0.280909925699234, -0.3262513279914856, -0.07533159106969833, 0.38866347074508667, 0.31588107347488403, -0.0028925712686032057, -0.4405064880847931, 0.1288250833749771, -0.3924105763435364, -0.08498641848564148, -0.24755272269248962, 0.05853952467441559, -0.040216367691755295, 0.3861883878707886, -0.24346964061260223, 0.026623740792274475, 0.1678171306848526, -0.2261078804731369, -0.2459278106689453, -0.4401012361049652, 0.2664642632007599, -0.1193607747554779, 0.06516905874013901, 0.46104416251182556, -0.2493606060743332, 0.20468667149543762, -0.15678437054157257, -0.48247119784355164, 0.1072561964392662, -0.4181421101093292, 0.3195408582687378, -0.2645430862903595, -0.012091129086911678, 0.4375626742839813, 0.413457989692688, 0.3027923107147217, 0.25123870372772217, 0.14219655096530914, -0.5538826584815979, -0.055580902844667435, -0.07777010649442673, -0.21245504915714264, -0.30059102177619934, 0.1922781765460968, 0.24214564263820648, 0.5325545072555542, 0.12656591832637787, 0.3577786982059479, -0.19240668416023254, -0.21328295767307281, 0.3593370020389557, 0.06497489660978317, -0.3714198172092438, -0.2680273652076721, -0.2023705095052719, -0.1880892813205719, -0.41323593258857727, 0.10200835019350052, 0.5971405506134033, -0.7498003840446472, -0.1166984885931015, 0.0736413523554802, 0.061811912804841995, -0.15148237347602844, -0.36020350456237793, 0.029172414913773537, -0.30009475350379944, 0.8213810324668884, 0.15752209722995758, 0.03198342025279999, -0.27368488907814026, -0.3656877279281616, -0.48432767391204834, 0.5353500843048096, 0.7125285863876343, 0.15190859138965607, -0.07111426442861557, -0.5525116324424744, -0.05764472112059593, -0.5741991400718689, 0.06856825947761536, 0.019107868894934654, -0.12286581099033356, 0.29520320892333984, -0.22889770567417145, -0.12587876617908478, 0.022095253691077232, -0.23855748772621155, -0.01973085291683674, 0.03090246580541134, 0.1083674430847168, 0.17965413630008698, -0.2570347487926483, 0.15629471838474274, 0.25557050108909607, -0.3808020055294037, -0.28815585374832153, -0.14346283674240112, -0.1771060973405838, -0.17149701714515686, 0.3731299340724945, -0.0764152854681015, 0.08285996317863464, 0.17469602823257446, -0.23880980908870697, 0.24510496854782104, 0.4310883581638336, -0.1805223524570465, -0.24066168069839478, -0.3966667652130127, -0.31727686524391174, -0.5968090891838074, 0.6680386662483215, -0.8974668383598328, 0.31347912549972534, 0.16505073010921478, -0.23571136593818665, 0.12556490302085876, 0.4452399015426636, 0.13041561841964722, -0.022576866671442986, -0.01763731986284256, 0.07995773106813431, 0.12463755160570145, 0.16022521257400513, -0.16404077410697937, -0.09587889909744263, 0.42832449078559875, 0.38000544905662537, 0.16504427790641785, -0.2735098600387573, -0.4654769003391266, -0.33626464009284973, 0.058946892619132996, 1.1836340427398682, 0.24261003732681274, 0.06187933310866356, 0.6862280964851379, -0.08553741127252579, 0.11671178787946701, -0.18791304528713226, 0.08935956656932831, -0.29817503690719604, -0.4441809356212616, -0.46830281615257263, 0.8068065643310547, -0.0432601124048233, 0.3510376811027527, 0.3419257402420044, -0.22199039161205292, -0.5735642313957214, 0.31560802459716797, -0.29001080989837646, 0.1083533763885498, -0.41125404834747314, 0.025389861315488815, -0.5563899874687195, -0.4819175899028778, 0.4414331614971161, 0.5728920102119446, 0.3086085915565491, 0.1204373762011528, 0.3632461130619049, -0.09596604853868484, 0.11917001754045486, 0.31608614325523376, -0.1541111320257187, 0.21406470239162445, -0.14552928507328033, 0.33895620703697205, 0.06551658362150192, -0.05032418668270111, -0.01032663881778717, -0.12088365852832794, 0.10345648974180222, -0.16577363014221191, -0.1801234781742096, 0.23641368746757507, 0.452161967754364, 0.27182742953300476, -0.5366696715354919, 0.20377957820892334, 0.2425759881734848, 0.6224640607833862, -0.21731702983379364, 0.11748450994491577, 0.13463696837425232, -0.20032718777656555, 0.12304650992155075, 0.23458220064640045, -0.2677097022533417, 0.031527355313301086, -0.367403507232666, -0.3835074305534363, 0.05945092812180519, 0.43311619758605957, -0.11845723539590836, 0.22877608239650726, -0.4892835021018982, -0.30145263671875, 0.1720017045736313, 1.049822211265564, -0.011872387491166592, -0.3708926737308502, 0.26289889216423035, 0.0178730059415102, -0.01611609198153019, -0.19234898686408997, 0.26759445667266846, -0.011845395900309086, -0.18511563539505005, -0.27936139702796936, -0.31797125935554504, -0.05467880144715309, 0.19448792934417725, -0.018971947953104973, -0.03699178248643875, 0.012489433400332928, 0.46034443378448486, -0.6926088333129883, 0.18480290472507477, -0.6782048344612122, -0.25626593828201294, -0.5938153862953186, 0.25663232803344727, 0.4026692807674408, -0.4115859866142273, 0.30493462085723877, -0.25693565607070923, 0.4564884603023529, -0.2053077667951584, -0.3703164756298065, 0.6354811787605286, 0.5057394504547119, 0.13208258152008057, 0.36580535769462585, -0.5842633247375488, 0.6578388810157776, 0.027690574526786804, 0.25933995842933655, -0.3794965445995331, -0.1803564429283142, -0.084544338285923, 0.03053264319896698, 0.19673381745815277, -0.1641124188899994, -0.04757897928357124, 0.10419552028179169, -0.05606301501393318, -0.12641610205173492, 0.18897657096385956, -0.042381323873996735, 0.04416857659816742, 0.5929406881332397, 0.17577017843723297, -0.1089797243475914, -0.04081704467535019, -0.03956636041402817, -0.3662797212600708, 0.28558874130249023, -0.4562092423439026, -0.09149661660194397, 0.19118210673332214, 0.1082129254937172, 0.07047496736049652, 0.3921067416667938, -0.056838568300008774, -0.1969050019979477, 0.20519103109836578, -0.017593780532479286, 0.1013546884059906, 1.2712684869766235, 0.07308623939752579, 0.22707955539226532, 0.025068480521440506, 0.08231212198734283, 0.057007595896720886, -0.5633232593536377, -0.10815577954053879, 0.02669413946568966, 0.9600027799606323, -0.1417500525712967, -0.06730891764163971, -0.22097112238407135, 0.3375561833381653, 0.2594071626663208, 0.4811849892139435, -0.012409389950335026, 0.15050245821475983, 0.4392785429954529, -0.02592676691710949, -0.030480006709694862, -0.013216635212302208, 0.11993027478456497, -0.10649756342172623, -0.1328599750995636, 0.3356073200702667, 0.15909594297409058, -0.5366443395614624, 0.2819492816925049, 1.562362790107727, -0.1959541141986847, 0.5791289210319519, 0.3636084794998169, 0.5334048271179199, -0.768612265586853, -0.7331510782241821, -0.4358792304992676, 0.8469101190567017, 0.25607872009277344, -0.5053834319114685, -0.2917676568031311, 1.6530176401138306, 0.6007322669029236, -0.3884568214416504, -0.4257316589355469, -0.2922416627407074, -0.0019140936201438308, -1.0677870512008667, -0.2654152512550354, -0.6013084650039673, 0.32834771275520325, 0.7259910702705383, 0.01501736231148243, 0.32300323247909546, -0.4781816005706787, 0.4042775332927704, 0.17083555459976196, -0.3729337751865387, 0.012013315223157406, -0.32496052980422974, 0.09126162528991699, -0.4269833266735077, -0.4470750093460083, 0.0035631272476166487, -1.0187872648239136, -0.21888796985149384, 0.16103364527225494, 0.17314055562019348, -0.27078017592430115, -0.05973244458436966, 0.3689395785331726, -0.056208204478025436, -0.06435420364141464, -0.4161411225795746, 0.1059764176607132, -0.12836386263370514, 0.09866815060377121, 0.07349971681833267, 0.1115737333893776, 0.08890527486801147, 0.1684555560350418, 0.5817932486534119, 0.686301589012146, -0.25076401233673096, -0.5004072189331055, -0.016658298671245575, 0.17858333885669708, -0.30155491828918457, 0.03356512635946274, 0.18191255629062653, 0.06298606097698212, -0.0800682082772255, -0.22307631373405457, -0.363714337348938, 0.03189266473054886, -0.08169516175985336, 0.14853248000144958, 0.05880265682935715, 0.2400122880935669, 0.7816786170005798, 0.9569596648216248, -0.29694536328315735, -0.3615087568759918, -0.5288655161857605, 0.6582993268966675, 0.3854227662086487, 0.2952609658241272, -0.32782185077667236, 0.1385534703731537, 0.0980256125330925, -0.16964806616306305, 0.10485338419675827, -0.11585178226232529, -0.016626209020614624, -0.039456892758607864, -0.26996859908103943, 0.025278061628341675, 0.009085206314921379, -0.3677128851413727, -0.0846405029296875, -0.010441629216074944, 1.1123020648956299, -0.6562234163284302, 0.5206608772277832, 0.12429360300302505, 0.03177675977349281, 0.41421234607696533, 0.478823721408844, 0.0952720046043396, -0.24884389340877533, -0.35867172479629517, -0.4182007610797882, 0.29476338624954224, -0.11344929039478302, -0.6812800168991089, -0.2923944294452667, -0.18855668604373932, 0.6243234276771545, -0.0432048961520195, -0.2924329936504364, 0.13393059372901917, 0.2804117798805237, 0.09008179605007172, 0.5023529529571533, -0.05315469950437546, 0.25786831974983215, -0.2647225856781006, -0.22932152450084686, -0.9470961689949036, -0.5012369155883789, 0.2963885962963104, -0.36594340205192566, -0.14629122614860535, 0.20115165412425995, 0.10209226608276367, -0.13404414057731628, 0.13809844851493835, -0.17712533473968506, 0.24857240915298462, -0.12504899501800537, 0.09754926711320877, 0.3356179893016815, 0.2882441282272339, 0.3942984640598297, -0.32596737146377563, -0.7167284488677979, -0.23149001598358154, 0.4210280776023865, 0.3647203743457794, -0.20862998068332672, -0.2576107680797577, -0.3626022934913635, -0.1949005126953125, 0.31646254658699036, -0.016475608572363853, -0.24055474996566772, 0.3974371552467346, -0.1855555772781372, 0.17353694140911102, -0.0577569454908371, 0.1775442361831665, 0.09469952434301376, 0.08319547772407532, 0.28363358974456787, 0.6990144848823547, 0.30470922589302063, -0.03283053636550903, 0.25513866543769836, -0.541029155254364, 0.2552359104156494, -0.2131604105234146, 0.705327033996582, -0.5729731917381287, 0.10693162679672241, 0.016906626522541046, 0.30086395144462585, -0.24456584453582764, -0.13051918148994446, -0.633381187915802, -0.01900291070342064, -0.10967924445867538, -0.37493279576301575, 0.051217012107372284, 0.19347654283046722, 0.6202812194824219, 0.04793058708310127, -0.288402259349823, 0.24898049235343933, -0.09254273772239685, 0.2196214348077774, 0.16027915477752686, -1.0731199979782104, 0.09544721245765686, -1.6642886400222778, 1.4577102661132812, -0.35867545008659363, -0.08657366782426834, -0.45789867639541626, 0.3604414165019989, -0.4352310597896576, 0.24073544144630432, -0.4141419529914856, -0.2891956865787506, -0.09461212158203125, -0.780807614326477, 0.4681164622306824, -0.06143494322896004, 0.5038872361183167, 0.2987975776195526, 0.5510316491127014, 0.1982644498348236, 0.5339371562004089, -0.5999161601066589, -0.6890955567359924, -0.011205373331904411, -0.5354788303375244, 0.1589597761631012, 0.8335890173912048, -0.44363677501678467, -0.15646670758724213, 0.17896288633346558, -0.7040926218032837, 0.06926791369915009, -0.14038622379302979, -0.2819955348968506, -0.035072196274995804, -0.049720168113708496, 0.17403395473957062, -0.001583171309903264, 0.21284252405166626, 0.2898530960083008, 0.00979151763021946, 0.16204151511192322, 0.8918947577476501, -0.3788984417915344, 0.7592519521713257, 0.7803943157196045, 0.5907149314880371, -0.31599709391593933, 0.13992851972579956, -0.07883623242378235, 0.27306175231933594, 0.7560455203056335, -0.5801416635513306, -0.09200114011764526, -0.019481491297483444, 0.03481198474764824, -0.17665375769138336, -0.22130349278450012, 0.47436991333961487, 0.024920480325818062, 0.34046176075935364, 0.4182399809360504, -0.1823793649673462, 0.2619342803955078, 0.2486114799976349, -0.2692684829235077, 0.7664511203765869, 0.22807539999485016, -0.6805040836334229, -0.20360618829727173, 0.39786213636398315, -0.5233021974563599, 0.22176826000213623, 0.554173469543457, -0.7803640961647034, -0.1165013238787651, 0.18069066107273102, -0.44344770908355713, 0.1904296725988388, -0.8166396021842957, 0.5992417335510254, 0.010530650615692139, 0.4448526203632355, -0.01281819399446249, -0.3042505979537964, 0.3255820572376251, 0.3337025046348572, 0.002041497500613332, 0.2806723415851593, -0.02932834066450596, -0.0408903993666172, 0.6922151446342468, 0.6053773164749146, 0.1991705298423767, -0.17891445755958557, 0.28401193022727966, -0.5959201455116272, -0.07691148668527603, 0.15328098833560944, -0.46284016966819763, -0.07385827600955963, -0.40257778763771057, 0.6494512557983398, -0.4278879463672638, 0.07370325177907944, 0.5985832810401917, 0.3724348247051239, -0.10123889893293381, 0.2973599433898926, -0.2555754780769348, -0.7350683808326721, -0.19220012426376343, 0.33079996705055237, -0.2959133982658386, -0.07139725983142853, 0.23896755278110504, -0.31716158986091614, 0.2946793735027313, -0.2896078824996948, -0.20894083380699158, -0.09816370904445648, -0.717174232006073, 0.1527278572320938, -0.2179311215877533, 0.30519384145736694, -0.42821836471557617, 0.13612967729568481, 0.6376824975013733, 0.19714337587356567, -0.1959875226020813, 0.3558496832847595, -0.04875151067972183, 0.07090878486633301, -0.2630368769168854, -0.5921692252159119, 0.2861429452896118, 0.09047992527484894, -0.2831847667694092, -1.0894639492034912, 1.156954050064087, -0.009822450578212738, 0.019999999552965164]}